<?xml version="1.0"?>
<opencv_storage>
<stage11>
  <maxWeakCount>13</maxWeakCount>
  <stageThreshold>-9.6562939882278442e-01</stageThreshold>
  <weakClassifiers>
    <_>
      <internalNodes>
        0 -1 159726 6.0238200239837170e-04</internalNodes>
      <leafValues>
        -4.3575417995452881e-01 2.1544715762138367e-01</leafValues></_>
    <_>
      <internalNodes>
        0 -1 44654 -1.7616756260395050e-02</internalNodes>
      <leafValues>
        -6.5534311532974243e-01 1.4645196497440338e-01</leafValues></_>
    <_>
      <internalNodes>
        0 -1 59082 1.2645834125578403e-02</internalNodes>
      <leafValues>
        1.4660057425498962e-01 -7.5654250383377075e-01</leafValues></_>
    <_>
      <internalNodes>
        0 -1 13374 -1.4836550690233707e-05</internalNodes>
      <leafValues>
        2.1156157553195953e-01 -4.5109790563583374e-01</leafValues></_>
    <_>
      <internalNodes>
        0 -1 89761 3.3294352761004120e-05</internalNodes>
      <leafValues>
        -2.9011976718902588e-01 3.4624287486076355e-01</leafValues></_>
    <_>
      <internalNodes>
        0 -1 29432 -6.1679989099502563e-02</internalNodes>
      <leafValues>
        6.8088537454605103e-01 -1.5871235728263855e-01</leafValues></_>
    <_>
      <internalNodes>
        0 -1 93565 7.0705595426261425e-03</internalNodes>
      <leafValues>
        -1.8985398113727570e-01 6.0667651891708374e-01</leafValues></_>
    <_>
      <internalNodes>
        0 -1 129852 1.4778829063288867e-04</internalNodes>
      <leafValues>
        -3.5789430141448975e-01 2.7954217791557312e-01</leafValues></_>
    <_>
      <internalNodes>
        0 -1 154605 1.5658959746360779e-03</internalNodes>
      <leafValues>
        -3.6938184499740601e-01 2.9322642087936401e-01</leafValues></_>
    <_>
      <internalNodes>
        0 -1 158277 3.6535328254103661e-03</internalNodes>
      <leafValues>
        -2.0916098356246948e-01 5.6026929616928101e-01</leafValues></_>
    <_>
      <internalNodes>
        0 -1 33625 9.9412798881530762e-03</internalNodes>
      <leafValues>
        2.0777852833271027e-01 -6.1182546615600586e-01</leafValues></_>
    <_>
      <internalNodes>
        0 -1 129682 3.7653385661542416e-03</internalNodes>
      <leafValues>
        -2.3972116410732269e-01 4.7239875793457031e-01</leafValues></_>
    <_>
      <internalNodes>
        0 -1 160884 -2.9412793810479343e-04</internalNodes>
      <leafValues>
        2.4272954463958740e-01 -4.1032803058624268e-01</leafValues></_></weakClassifiers></stage11>
</opencv_storage>
