<?xml version="1.0"?>
<opencv_storage>
<stage12>
  <maxWeakCount>9</maxWeakCount>
  <stageThreshold>-1.1470443010330200e+00</stageThreshold>
  <weakClassifiers>
    <_>
      <internalNodes>
        0 -1 159160 7.2040716186165810e-03</internalNodes>
      <leafValues>
        -7.5529414415359497e-01 -1.0791366547346115e-01</leafValues></_>
    <_>
      <internalNodes>
        0 -1 114405 -6.1072740936651826e-04</internalNodes>
      <leafValues>
        -7.0200878381729126e-01 1.1083557456731796e-01</leafValues></_>
    <_>
      <internalNodes>
        0 -1 157171 -1.6264393925666809e-03</internalNodes>
      <leafValues>
        2.3509171605110168e-01 -5.8013623952865601e-01</leafValues></_>
    <_>
      <internalNodes>
        0 -1 13024 -9.5997890457510948e-04</internalNodes>
      <leafValues>
        2.4244827032089233e-01 -7.4418693780899048e-01</leafValues></_>
    <_>
      <internalNodes>
        0 -1 47096 -2.0817513577640057e-03</internalNodes>
      <leafValues>
        -7.5681215524673462e-01 1.8979658186435699e-01</leafValues></_>
    <_>
      <internalNodes>
        0 -1 56415 -8.7804775685071945e-03</internalNodes>
      <leafValues>
        -7.3921966552734375e-01 2.2954462468624115e-01</leafValues></_>
    <_>
      <internalNodes>
        0 -1 69372 -2.5329096242785454e-03</internalNodes>
      <leafValues>
        5.7155430316925049e-01 -3.4026244282722473e-01</leafValues></_>
    <_>
      <internalNodes>
        0 -1 25487 6.7316257627680898e-05</internalNodes>
      <leafValues>
        -6.5367496013641357e-01 2.7969250082969666e-01</leafValues></_>
    <_>
      <internalNodes>
        0 -1 90475 -2.7053188532590866e-02</internalNodes>
      <leafValues>
        5.8110564947128296e-01 -3.3135309815406799e-01</leafValues></_></weakClassifiers></stage12>
</opencv_storage>
