<?xml version="1.0"?>
<opencv_storage>
<stage12>
  <maxWeakCount>14</maxWeakCount>
  <stageThreshold>-1.2354751825332642e+00</stageThreshold>
  <weakClassifiers>
    <_>
      <internalNodes>
        0 -1 142886 8.3963964134454727e-03</internalNodes>
      <leafValues>
        7.9943895339965820e-02 -7.8102189302444458e-01</leafValues></_>
    <_>
      <internalNodes>
        0 -1 126684 1.0929766576737165e-03</internalNodes>
      <leafValues>
        1.3202080130577087e-01 -6.3593071699142456e-01</leafValues></_>
    <_>
      <internalNodes>
        0 -1 68916 -1.0670316405594349e-03</internalNodes>
      <leafValues>
        -7.4228221178054810e-01 1.3091240823268890e-01</leafValues></_>
    <_>
      <internalNodes>
        0 -1 1229 -2.5599509477615356e-02</internalNodes>
      <leafValues>
        4.4431954622268677e-01 -2.0775784552097321e-01</leafValues></_>
    <_>
      <internalNodes>
        0 -1 81007 -1.3385525904595852e-02</internalNodes>
      <leafValues>
        -8.5577088594436646e-01 1.1928190290927887e-01</leafValues></_>
    <_>
      <internalNodes>
        0 -1 99185 -2.3807305842638016e-02</internalNodes>
      <leafValues>
        8.2903254032135010e-01 -1.4802588522434235e-01</leafValues></_>
    <_>
      <internalNodes>
        0 -1 61085 1.1961445212364197e-02</internalNodes>
      <leafValues>
        -1.4515571296215057e-01 7.4435716867446899e-01</leafValues></_>
    <_>
      <internalNodes>
        0 -1 145341 -7.2336371522396803e-04</internalNodes>
      <leafValues>
        -6.0150712728500366e-01 1.7398659884929657e-01</leafValues></_>
    <_>
      <internalNodes>
        0 -1 81598 5.4742908105254173e-03</internalNodes>
      <leafValues>
        1.1004853248596191e-01 -7.9147142171859741e-01</leafValues></_>
    <_>
      <internalNodes>
        0 -1 94013 6.7683262750506401e-03</internalNodes>
      <leafValues>
        -2.0157536864280701e-01 4.9496141076087952e-01</leafValues></_>
    <_>
      <internalNodes>
        0 -1 110400 -5.7366210967302322e-03</internalNodes>
      <leafValues>
        5.9795880317687988e-01 -2.1309590339660645e-01</leafValues></_>
    <_>
      <internalNodes>
        0 -1 9454 -5.8982260525226593e-03</internalNodes>
      <leafValues>
        -5.1218152046203613e-01 2.0985847711563110e-01</leafValues></_>
    <_>
      <internalNodes>
        0 -1 128035 -3.1729571055620909e-03</internalNodes>
      <leafValues>
        -7.1307021379470825e-01 1.1158306896686554e-01</leafValues></_>
    <_>
      <internalNodes>
        0 -1 106795 1.6151887830346823e-03</internalNodes>
      <leafValues>
        1.0249137878417969e-01 -6.7394828796386719e-01</leafValues></_></weakClassifiers></stage12>
</opencv_storage>
