<?xml version="1.0"?>
<opencv_storage>
<stage8>
  <maxWeakCount>11</maxWeakCount>
  <stageThreshold>-7.3662710189819336e-01</stageThreshold>
  <weakClassifiers>
    <_>
      <internalNodes>
        0 -1 20129 -2.1922153234481812e-01</internalNodes>
      <leafValues>
        2.5877192616462708e-01 -4.2639595270156860e-01</leafValues></_>
    <_>
      <internalNodes>
        0 -1 160029 -5.2538802847266197e-03</internalNodes>
      <leafValues>
        5.0740891695022583e-01 -2.1246045827865601e-01</leafValues></_>
    <_>
      <internalNodes>
        0 -1 160397 1.2075650738552213e-03</internalNodes>
      <leafValues>
        -2.4899107217788696e-01 4.3717497587203979e-01</leafValues></_>
    <_>
      <internalNodes>
        0 -1 80751 1.3855291763320565e-03</internalNodes>
      <leafValues>
        1.6874587535858154e-01 -6.4019286632537842e-01</leafValues></_>
    <_>
      <internalNodes>
        0 -1 71427 -5.9346519410610199e-02</internalNodes>
      <leafValues>
        7.1306264400482178e-01 -1.3091833889484406e-01</leafValues></_>
    <_>
      <internalNodes>
        0 -1 90455 3.8608297705650330e-02</internalNodes>
      <leafValues>
        -2.3269447684288025e-01 6.5506976842880249e-01</leafValues></_>
    <_>
      <internalNodes>
        0 -1 9679 6.1597742140293121e-02</internalNodes>
      <leafValues>
        1.9340588152408600e-01 -7.6128667593002319e-01</leafValues></_>
    <_>
      <internalNodes>
        0 -1 159282 -1.5230409189825878e-05</internalNodes>
      <leafValues>
        3.5394346714019775e-01 -3.2353329658508301e-01</leafValues></_>
    <_>
      <internalNodes>
        0 -1 5940 -1.1609753593802452e-02</internalNodes>
      <leafValues>
        5.0626379251480103e-01 -2.7032002806663513e-01</leafValues></_>
    <_>
      <internalNodes>
        0 -1 154768 -1.0795221896842122e-03</internalNodes>
      <leafValues>
        3.2074409723281860e-01 -4.0111264586448669e-01</leafValues></_>
    <_>
      <internalNodes>
        0 -1 16345 5.8138743042945862e-03</internalNodes>
      <leafValues>
        -2.1499724686145782e-01 6.0099822282791138e-01</leafValues></_></weakClassifiers></stage8>
</opencv_storage>
