<?xml version="1.0"?>
<opencv_storage>
<stage2>
  <maxWeakCount>10</maxWeakCount>
  <stageThreshold>-1.2004141807556152e+00</stageThreshold>
  <weakClassifiers>
    <_>
      <internalNodes>
        0 -1 162097 1.5081076526257675e-05</internalNodes>
      <leafValues>
        -5.3535354137420654e-01 3.5682818293571472e-01</leafValues></_>
    <_>
      <internalNodes>
        0 -1 32474 -3.1484919786453247e-01</internalNodes>
      <leafValues>
        5.2923595905303955e-01 -3.9183783531188965e-01</leafValues></_>
    <_>
      <internalNodes>
        0 -1 12564 -9.7899194806814194e-03</internalNodes>
      <leafValues>
        6.6808724403381348e-01 -2.5122761726379395e-01</leafValues></_>
    <_>
      <internalNodes>
        0 -1 97556 6.6598597913980484e-03</internalNodes>
      <leafValues>
        2.4145312607288361e-01 -6.9851416349411011e-01</leafValues></_>
    <_>
      <internalNodes>
        0 -1 48061 -4.8018693923950195e-02</internalNodes>
      <leafValues>
        -8.6040920019149780e-01 1.9757010042667389e-01</leafValues></_>
    <_>
      <internalNodes>
        0 -1 153455 -1.9537447020411491e-02</internalNodes>
      <leafValues>
        6.6190648078918457e-01 -2.8973257541656494e-01</leafValues></_>
    <_>
      <internalNodes>
        0 -1 80756 9.5449184300377965e-05</internalNodes>
      <leafValues>
        3.3099254965782166e-01 -4.7514244914054871e-01</leafValues></_>
    <_>
      <internalNodes>
        0 -1 158665 3.1297135137720034e-05</internalNodes>
      <leafValues>
        -3.2952940464019775e-01 4.7428911924362183e-01</leafValues></_>
    <_>
      <internalNodes>
        0 -1 158665 -1.5473817256861366e-05</internalNodes>
      <leafValues>
        5.2367448806762695e-01 -2.9955536127090454e-01</leafValues></_>
    <_>
      <internalNodes>
        0 -1 41192 5.3739354014396667e-02</internalNodes>
      <leafValues>
        1.4801630377769470e-01 -9.8871695995330811e-01</leafValues></_></weakClassifiers></stage2>
</opencv_storage>
